digraph Tree {
node [shape=box, style="filled, rounded", color="black", fontname=helvetica] ;
edge [fontname=helvetica] ;
0 [label="petal width (cm) <= 0.8\ngini = 0.66\nsamples = 95\nvalue = [61, 50, 39]\nclass = setosa", fillcolor="#fcf1e9"] ;
1 [label="gini = 0.0\nsamples = 35\nvalue = [61, 0, 0]\nclass = setosa", fillcolor="#e58139"] ;
0 -> 1 [labeldistance=2.5, labelangle=45, headlabel="True"] ;
2 [label="petal length (cm) <= 4.75\ngini = 0.49\nsamples = 60\nvalue = [0, 50, 39]\nclass = versicolor", fillcolor="#d3f9e3"] ;
0 -> 2 [labeldistance=2.5, labelangle=-45, headlabel="False"] ;
3 [label="petal width (cm) <= 1.65\ngini = 0.08\nsamples = 33\nvalue = [0, 48, 2]\nclass = versicolor", fillcolor="#41e686"] ;
2 -> 3 ;
4 [label="gini = 0.0\nsamples = 32\nvalue = [0, 48, 0]\nclass = versicolor", fillcolor="#39e581"] ;
3 -> 4 ;
5 [label="gini = 0.0\nsamples = 1\nvalue = [0, 0, 2]\nclass = virginica", fillcolor="#8139e5"] ;
3 -> 5 ;
6 [label="sepal length (cm) <= 6.05\ngini = 0.1\nsamples = 27\nvalue = [0, 2, 37]\nclass = virginica", fillcolor="#8844e6"] ;
2 -> 6 ;
7 [label="sepal width (cm) <= 3.1\ngini = 0.44\nsamples = 5\nvalue = [0, 2, 4]\nclass = virginica", fillcolor="#c09cf2"] ;
6 -> 7 ;
8 [label="petal width (cm) <= 1.7\ngini = 0.32\nsamples = 4\nvalue = [0, 1, 4]\nclass = virginica", fillcolor="#a06aec"] ;
7 -> 8 ;
9 [label="gini = 0.0\nsamples = 1\nvalue = [0, 1, 0]\nclass = versicolor", fillcolor="#39e581"] ;
8 -> 9 ;
10 [label="gini = 0.0\nsamples = 3\nvalue = [0, 0, 4]\nclass = virginica", fillcolor="#8139e5"] ;
8 -> 10 ;
11 [label="gini = 0.0\nsamples = 1\nvalue = [0, 1, 0]\nclass = versicolor", fillcolor="#39e581"] ;
7 -> 11 ;
12 [label="gini = 0.0\nsamples = 22\nvalue = [0, 0, 33]\nclass = virginica", fillcolor="#8139e5"] ;
6 -> 12 ;
}